digraph Tree {
node [shape=box, style="filled, rounded", color="black", fontname="helvetica"] ;
edge [fontname="helvetica"] ;
0 [label=<TIPO_PACIENTE &le; 1.5<br/>gini = 0.106<br/>samples = 1729555<br/>value = [97291, 1632264]<br/>class = No Sobrevivio>, fillcolor="#45a3e7"] ;
1 [label=<gini = 0.0<br/>samples = 1525111<br/>value = [0, 1525111]<br/>class = No Sobrevivio>, fillcolor="#399de5"] ;
0 -> 1 [labeldistance=2.5, labelangle=45, headlabel="True"] ;
2 [label=<EDAD &le; 54.5<br/>gini = 0.499<br/>samples = 204444<br/>value = [97291, 107153]<br/>class = No Sobrevivio>, fillcolor="#edf6fd"] ;
0 -> 2 [labeldistance=2.5, labelangle=-45, headlabel="False"] ;
3 [label=<EDAD &le; 35.5<br/>gini = 0.433<br/>samples = 85820<br/>value = [27230, 58590]<br/>class = No Sobrevivio>, fillcolor="#95cbf1"] ;
2 -> 3 ;
5 [label=<EDAD &le; 25.5<br/>gini = 0.299<br/>samples = 26623<br/>value = [4868, 21755]<br/>class = No Sobrevivio>, fillcolor="#65b3eb"] ;
3 -> 5 ;
13 [label=<OBESIDAD &le; 1.5<br/>gini = 0.203<br/>samples = 10117<br/>value = [1160, 8957]<br/>class = No Sobrevivio>, fillcolor="#53aae8"] ;
5 -> 13 ;
41 [label=<gini = 0.346<br/>samples = 1056<br/>value = [235, 821]<br/>class = No Sobrevivio>, fillcolor="#72b9ec"] ;
13 -> 41 ;
42 [label=<RENAL_CRONICA &le; 1.5<br/>gini = 0.183<br/>samples = 9061<br/>value = [925, 8136]<br/>class = No Sobrevivio>, fillcolor="#50a8e8"] ;
13 -> 42 ;
47 [label=<gini = 0.43<br/>samples = 259<br/>value = [81, 178]<br/>class = No Sobrevivio>, fillcolor="#93caf1"] ;
42 -> 47 ;
48 [label=<gini = 0.173<br/>samples = 8802<br/>value = [844, 7958]<br/>class = No Sobrevivio>, fillcolor="#4ea7e8"] ;
42 -> 48 ;
14 [label=<RENAL_CRONICA &le; 1.5<br/>gini = 0.348<br/>samples = 16506<br/>value = [3708, 12798]<br/>class = No Sobrevivio>, fillcolor="#72b9ed"] ;
5 -> 14 ;
17 [label=<gini = 0.494<br/>samples = 817<br/>value = [365, 452]<br/>class = No Sobrevivio>, fillcolor="#d9ecfa"] ;
14 -> 17 ;
18 [label=<OBESIDAD &le; 1.5<br/>gini = 0.335<br/>samples = 15689<br/>value = [3343, 12346]<br/>class = No Sobrevivio>, fillcolor="#6fb8ec"] ;
14 -> 18 ;
19 [label=<gini = 0.428<br/>samples = 3219<br/>value = [1000, 2219]<br/>class = No Sobrevivio>, fillcolor="#92c9f1"] ;
18 -> 19 ;
20 [label=<SEXO &le; 1.5<br/>gini = 0.305<br/>samples = 12470<br/>value = [2343, 10127]<br/>class = No Sobrevivio>, fillcolor="#67b4eb"] ;
18 -> 20 ;
37 [label=<DIABETES &le; 1.5<br/>gini = 0.254<br/>samples = 5684<br/>value = [847, 4837]<br/>class = No Sobrevivio>, fillcolor="#5caeea"] ;
20 -> 37 ;
49 [label=<gini = 0.426<br/>samples = 409<br/>value = [126, 283]<br/>class = No Sobrevivio>, fillcolor="#91c9f1"] ;
37 -> 49 ;
50 [label=<gini = 0.236<br/>samples = 5275<br/>value = [721, 4554]<br/>class = No Sobrevivio>, fillcolor="#58ade9"] ;
37 -> 50 ;
38 [label=<gini = 0.344<br/>samples = 6786<br/>value = [1496, 5290]<br/>class = No Sobrevivio>, fillcolor="#71b9ec"] ;
20 -> 38 ;
6 [label=<HIPERTENSION &le; 1.5<br/>gini = 0.47<br/>samples = 59197<br/>value = [22362, 36835]<br/>class = No Sobrevivio>, fillcolor="#b1d8f5"] ;
3 -> 6 ;
9 [label=<RENAL_CRONICA &le; 1.5<br/>gini = 0.496<br/>samples = 14403<br/>value = [6559, 7844]<br/>class = No Sobrevivio>, fillcolor="#dfeffb"] ;
6 -> 9 ;
23 [label=<gini = 0.49<br/>samples = 1905<br/>value = [1087, 818]<br/>class = Sobrevivio>, fillcolor="#f9e0ce"] ;
9 -> 23 ;
24 [label=<OBESIDAD &le; 1.5<br/>gini = 0.492<br/>samples = 12498<br/>value = [5472, 7026]<br/>class = No Sobrevivio>, fillcolor="#d3e9f9"] ;
9 -> 24 ;
53 [label=<gini = 0.499<br/>samples = 4373<br/>value = [2081, 2292]<br/>class = No Sobrevivio>, fillcolor="#edf6fd"] ;
24 -> 53 ;
54 [label=<gini = 0.486<br/>samples = 8125<br/>value = [3391, 4734]<br/>class = No Sobrevivio>, fillcolor="#c7e3f8"] ;
24 -> 54 ;
10 [label=<EDAD &le; 45.5<br/>gini = 0.457<br/>samples = 44794<br/>value = [15803, 28991]<br/>class = No Sobrevivio>, fillcolor="#a5d2f3"] ;
6 -> 10 ;
11 [label=<SEXO &le; 1.5<br/>gini = 0.426<br/>samples = 21134<br/>value = [6493, 14641]<br/>class = No Sobrevivio>, fillcolor="#91c8f1"] ;
10 -> 11 ;
29 [label=<OBESIDAD &le; 1.5<br/>gini = 0.389<br/>samples = 8301<br/>value = [2192, 6109]<br/>class = No Sobrevivio>, fillcolor="#80c0ee"] ;
11 -> 29 ;
51 [label=<gini = 0.442<br/>samples = 1804<br/>value = [595, 1209]<br/>class = No Sobrevivio>, fillcolor="#9acdf2"] ;
29 -> 51 ;
52 [label=<DIABETES &le; 1.5<br/>gini = 0.371<br/>samples = 6497<br/>value = [1597, 4900]<br/>class = No Sobrevivio>, fillcolor="#7abded"] ;
29 -> 52 ;
55 [label=<gini = 0.449<br/>samples = 891<br/>value = [303, 588]<br/>class = No Sobrevivio>, fillcolor="#9fd0f2"] ;
52 -> 55 ;
56 [label=<gini = 0.355<br/>samples = 5606<br/>value = [1294, 4312]<br/>class = No Sobrevivio>, fillcolor="#74baed"] ;
52 -> 56 ;
30 [label=<OBESIDAD &le; 1.5<br/>gini = 0.446<br/>samples = 12833<br/>value = [4301, 8532]<br/>class = No Sobrevivio>, fillcolor="#9dcef2"] ;
11 -> 30 ;
39 [label=<gini = 0.481<br/>samples = 2560<br/>value = [1032, 1528]<br/>class = No Sobrevivio>, fillcolor="#bfdff7"] ;
30 -> 39 ;
40 [label=<gini = 0.434<br/>samples = 10273<br/>value = [3269, 7004]<br/>class = No Sobrevivio>, fillcolor="#95cbf1"] ;
30 -> 40 ;
12 [label=<SEXO &le; 1.5<br/>gini = 0.477<br/>samples = 23660<br/>value = [9310, 14350]<br/>class = No Sobrevivio>, fillcolor="#b9ddf6"] ;
10 -> 12 ;
27 [label=<gini = 0.456<br/>samples = 9169<br/>value = [3220, 5949]<br/>class = No Sobrevivio>, fillcolor="#a4d2f3"] ;
12 -> 27 ;
28 [label=<OBESIDAD &le; 1.5<br/>gini = 0.487<br/>samples = 14491<br/>value = [6090, 8401]<br/>class = No Sobrevivio>, fillcolor="#c9e4f8"] ;
12 -> 28 ;
45 [label=<gini = 0.5<br/>samples = 2425<br/>value = [1180, 1245]<br/>class = No Sobrevivio>, fillcolor="#f5fafe"] ;
28 -> 45 ;
46 [label=<EDAD &le; 49.5<br/>gini = 0.483<br/>samples = 12066<br/>value = [4910, 7156]<br/>class = No Sobrevivio>, fillcolor="#c1e0f7"] ;
28 -> 46 ;
57 [label=<gini = 0.47<br/>samples = 5429<br/>value = [2048, 3381]<br/>class = No Sobrevivio>, fillcolor="#b1d8f5"] ;
46 -> 57 ;
58 [label=<gini = 0.491<br/>samples = 6637<br/>value = [2862, 3775]<br/>class = No Sobrevivio>, fillcolor="#cfe7f9"] ;
46 -> 58 ;
4 [label=<EDAD &le; 66.5<br/>gini = 0.484<br/>samples = 118624<br/>value = [70061, 48563]<br/>class = Sobrevivio>, fillcolor="#f7d8c2"] ;
2 -> 4 ;
7 [label=<EDAD &le; 59.5<br/>gini = 0.498<br/>samples = 52659<br/>value = [27813, 24846]<br/>class = Sobrevivio>, fillcolor="#fcf2ea"] ;
4 -> 7 ;
15 [label=<RENAL_CRONICA &le; 1.5<br/>gini = 0.5<br/>samples = 21441<br/>value = [10496, 10945]<br/>class = No Sobrevivio>, fillcolor="#f7fbfe"] ;
7 -> 15 ;
25 [label=<gini = 0.459<br/>samples = 1155<br/>value = [743, 412]<br/>class = Sobrevivio>, fillcolor="#f3c7a7"] ;
15 -> 25 ;
26 [label=<SEXO &le; 1.5<br/>gini = 0.499<br/>samples = 20286<br/>value = [9753, 10533]<br/>class = No Sobrevivio>, fillcolor="#f0f8fd"] ;
15 -> 26 ;
33 [label=<gini = 0.494<br/>samples = 8912<br/>value = [3982, 4930]<br/>class = No Sobrevivio>, fillcolor="#d9ecfa"] ;
26 -> 33 ;
34 [label=<gini = 0.5<br/>samples = 11374<br/>value = [5771, 5603]<br/>class = Sobrevivio>, fillcolor="#fefbf9"] ;
26 -> 34 ;
16 [label=<SEXO &le; 1.5<br/>gini = 0.494<br/>samples = 31218<br/>value = [17317, 13901]<br/>class = Sobrevivio>, fillcolor="#fae6d8"] ;
7 -> 16 ;
35 [label=<gini = 0.498<br/>samples = 13990<br/>value = [7408, 6582]<br/>class = Sobrevivio>, fillcolor="#fcf1e9"] ;
16 -> 35 ;
36 [label=<gini = 0.489<br/>samples = 17228<br/>value = [9909, 7319]<br/>class = Sobrevivio>, fillcolor="#f8decb"] ;
16 -> 36 ;
8 [label=<EDAD &le; 78.5<br/>gini = 0.461<br/>samples = 65965<br/>value = [42248, 23717]<br/>class = Sobrevivio>, fillcolor="#f4c8a8"] ;
4 -> 8 ;
21 [label=<SEXO &le; 1.5<br/>gini = 0.47<br/>samples = 43574<br/>value = [27166, 16408]<br/>class = Sobrevivio>, fillcolor="#f5cdb1"] ;
8 -> 21 ;
31 [label=<gini = 0.48<br/>samples = 18751<br/>value = [11246, 7505]<br/>class = Sobrevivio>, fillcolor="#f6d5bd"] ;
21 -> 31 ;
32 [label=<gini = 0.46<br/>samples = 24823<br/>value = [15920, 8903]<br/>class = Sobrevivio>, fillcolor="#f4c7a8"] ;
21 -> 32 ;
22 [label=<SEXO &le; 1.5<br/>gini = 0.44<br/>samples = 22391<br/>value = [15082, 7309]<br/>class = Sobrevivio>, fillcolor="#f2be99"] ;
8 -> 22 ;
43 [label=<gini = 0.457<br/>samples = 9811<br/>value = [6336, 3475]<br/>class = Sobrevivio>, fillcolor="#f3c6a6"] ;
22 -> 43 ;
44 [label=<gini = 0.424<br/>samples = 12580<br/>value = [8746, 3834]<br/>class = Sobrevivio>, fillcolor="#f0b890"] ;
22 -> 44 ;
}
